nep3 3 Cu P S 
cutoff 7 5
n_max 8 6
basis_size 8 8
l_max 4 2 0
ANN 50 0
 -8.6454082e-01
 -2.3315234e-01
 -2.0780885e-01
  4.0514061e-01
  2.4324435e-01
 -2.8171131e-01
 -3.2105523e-01
  4.0008673e-01
  2.5756398e-01
  4.6038637e-01
 -1.0697857e-01
 -1.6832997e-03
  5.5557847e-01
  5.1642817e-01
 -1.1384343e-01
  6.0370971e-02
 -6.1380482e-01
  3.2377601e-01
  2.8884485e-01
 -3.7862599e-02
 -8.4792517e-02
  2.7722061e-01
 -1.8542857e-01
  1.2307022e-01
 -3.4400779e-01
  4.1534975e-02
  7.9300112e-01
  2.8948218e-01
 -6.5113559e-02
 -1.3273773e-01
 -1.6691145e+00
  9.0312973e-02
  2.7144206e-01
  1.2839450e-02
  2.5040820e-01
 -5.2716155e-02
  1.7569652e-01
  3.0091478e-02
  2.3704122e-01
  3.0719340e-01
 -1.5136143e-03
  2.0741010e-02
  1.7637447e-02
 -1.1665668e-01
 -1.2462872e-02
  5.7397685e-03
 -1.6464034e-01
 -1.1311094e-01
 -4.4077185e-01
  1.6221175e-02
 -2.3478021e-01
 -1.6227087e-02
 -4.0899920e-01
  2.7271131e-01
 -1.5310225e-01
 -4.8903248e-01
 -4.3908751e-01
 -2.5847390e-01
 -3.9283842e-01
  5.7788813e-01
  5.9398439e-02
 -8.7177199e-01
  3.4610424e-02
 -7.9686445e-01
  1.7643319e-01
 -6.5182537e-01
  7.5099665e-01
 -3.3449721e-01
 -2.2845946e-01
 -7.9719865e-01
 -1.7099865e-01
 -1.0515867e+00
 -3.0830517e-01
  4.4524148e-01
 -6.9938356e-01
  4.1097384e-02
 -1.3721246e+00
  4.0281761e-01
  3.8074203e-02
 -1.4122325e-01
  2.2841508e-03
 -1.3134153e-02
 -2.4341868e-02
 -2.0141414e-01
  6.2928349e-01
  5.6098043e-03
 -8.7969080e-02
  6.4096689e-02
 -4.4938782e-03
  1.9560270e-01
  1.5158471e-01
  6.9525711e-02
 -8.9026377e-02
 -5.6126108e-04
 -7.7925250e-02
 -4.8839457e-02
 -5.4890114e-01
 -2.6462080e-02
  1.1291452e-01
 -3.4515224e-02
 -7.9169255e-03
  3.8874891e-02
 -2.2621062e-03
  2.1331076e-02
 -9.1316372e-02
  1.7539208e-01
  5.9800379e-02
 -4.7745975e-03
 -4.4882707e-02
 -8.6660102e-02
  6.1326467e-02
 -7.7616289e-02
  8.0152586e-02
 -2.3176376e-02
  9.9032551e-02
 -1.8991148e-02
 -1.2368116e-01
 -4.9170133e-02
 -1.1742878e-02
  2.7748013e-02
  4.7926651e-03
 -1.1755472e-01
 -7.2759755e-02
  1.6258705e-01
  1.7291637e-01
 -1.8892078e-01
 -4.6631452e-02
 -3.8140547e-02
  3.6257796e-02
  9.8416563e-03
 -3.0518478e-02
  3.6415920e-02
 -1.7297500e-01
  2.2889145e-01
 -3.7186895e-02
  1.1913137e-01
 -1.6734095e-02
 -1.7338926e-01
 -3.4546159e-02
 -1.8477258e-01
 -1.5584037e-01
  2.5559254e-02
 -4.6781670e-02
  1.6509734e-01
  9.6375532e-03
 -1.4810102e-01
 -2.2330716e-01
 -5.5715930e-02
 -9.4807759e-02
  7.1589932e-02
  7.4552819e-02
 -1.9959408e-01
 -6.6492535e-02
 -1.7805019e-01
  1.4182676e-03
 -5.6439690e-02
 -5.8658749e-02
  1.2020395e-01
  4.8201964e-03
 -8.2782013e-03
  7.5146154e-02
  1.0895668e-01
 -3.8410693e-02
  4.1705355e-02
 -4.7829602e-02
 -1.1593273e-01
  5.4485373e-02
 -1.0763809e-01
 -6.3627236e-02
  2.7609453e-02
 -8.3638638e-02
 -7.7916384e-02
  3.2525569e-02
  6.7129053e-02
  7.2924733e-02
  1.6089909e-01
 -4.3625873e-01
  1.1261122e-01
 -1.7071281e-01
  1.4302013e-02
 -8.3785427e-01
 -1.0944927e+00
 -4.7803187e-01
 -3.6042088e-01
 -6.9674987e-01
 -2.2441788e-01
 -4.6730274e-01
  9.6017152e-02
 -1.2968634e-01
  6.0674310e-01
  4.1496047e-01
  1.4211403e-01
 -1.5743764e-01
  3.8679716e-01
 -1.5069014e-01
  6.5590888e-01
  2.5073312e-02
 -1.2752318e-01
 -1.9914914e-02
 -1.4925474e-02
  3.7481570e-01
  1.4460604e-01
  9.7199619e-02
  4.7821156e-03
 -8.5849799e-02
  2.7310121e-01
 -2.5604839e-02
  3.8091180e-01
 -7.4478881e-03
  9.7341821e-02
  1.7398186e-01
 -1.3564621e-02
  2.8525761e-01
 -6.4614818e-02
 -1.4060199e-03
 -8.2110003e-02
  7.7531010e-02
 -1.0108508e-01
 -6.8434939e-02
 -3.1257331e-02
  1.9182013e-02
 -3.2313889e-01
 -7.8683227e-01
 -1.4051434e-02
 -8.8680416e-01
 -2.2611554e-01
  2.8332093e-01
  3.2273120e-01
 -3.2160008e-01
 -2.3732059e-01
  2.8237000e-01
  5.8475262e-01
 -4.8495863e-02
  1.3521608e-02
 -3.1911498e-01
  7.6550700e-02
 -2.3977920e-01
 -3.1898629e-02
 -1.1421303e-01
  2.0350382e-02
 -7.6154925e-02
 -5.2775551e-02
 -4.1606077e-03
  1.6530372e-02
 -2.2886397e-01
 -3.1961601e-02
 -1.0409635e-01
  8.2178049e-02
 -4.9114054e-01
 -2.9480143e-02
 -2.5823140e-01
  1.9835511e-01
 -1.1278833e-01
 -1.2508071e-02
  6.4854980e-03
 -1.7925858e-01
  1.2143208e-01
 -2.9846382e-01
 -1.3185813e-01
 -4.1691503e-01
  7.3342919e-02
  5.3912275e-02
 -1.2427223e-02
 -3.5884550e-01
  2.7842907e-02
 -4.2545651e-03
  8.3982885e-02
  5.6011947e-03
 -8.5258111e-02
  1.7919153e-03
 -2.0133410e-01
 -7.0312232e-02
 -1.1102043e-01
  7.7853151e-02
  1.4463818e-01
  1.6515517e-01
 -2.1408850e-01
  5.5683058e-02
 -6.6056095e-02
  6.0783010e-02
 -5.7121128e-02
  7.9554088e-02
 -4.0504191e-02
 -2.9009649e-01
 -9.8815374e-02
  2.2645092e-01
 -1.2314281e-01
  7.3168948e-02
 -1.8835170e-02
  5.9576593e-03
 -5.3317383e-02
 -3.7581541e-02
 -1.2751655e-02
 -2.4756897e-02
  2.7670769e-02
  3.5289075e-02
 -2.3101903e-03
 -1.6646923e-01
 -1.0567523e-01
 -5.1288974e-02
 -6.9529004e-04
  7.9986705e-03
 -5.3842487e-03
  2.9725861e-02
 -1.6342393e-01
  6.1255910e-02
 -4.8616063e-03
  1.4458960e-02
 -8.1523007e-01
  6.2196922e-02
 -6.5646283e-02
  4.9089998e-02
 -1.6146868e-01
 -1.7560406e-01
 -2.0533394e-02
  1.7873161e-02
 -5.3655291e-01
 -1.6546561e-01
  7.2868623e-02
  5.3289030e-02
  9.6739428e-03
  4.4469396e-03
  6.0084298e-02
 -8.9316620e-03
  6.8949290e-02
  3.9784268e-02
 -5.2442424e-02
 -5.6270286e-03
 -7.9496771e-02
 -3.3492945e-02
 -1.7353542e-01
  1.1722690e-01
  4.3009628e-02
 -5.2020270e-02
 -5.8673024e-02
  8.0327885e-03
  3.9227676e-02
  4.5585163e-02
  1.5799676e-01
 -2.5766071e-02
  6.1745208e-02
 -7.0020661e-02
 -3.1701073e-02
  2.6216805e-02
 -4.5088090e-02
  8.7273404e-02
  1.5955089e-01
 -8.3788857e-02
  6.3240994e-04
  5.7763197e-02
 -1.2901939e-01
  8.0044791e-02
 -5.8951980e-01
 -1.1641324e+00
  7.1643375e-02
  3.0591181e-01
 -3.1965330e-02
  3.8751549e-01
  5.1959389e-01
  6.6359043e-01
  9.5658320e-01
  4.2731285e-01
 -4.7415137e-01
 -2.5562477e-01
 -1.6182639e-02
  1.8552360e-01
 -4.7751182e-01
  3.0834028e-01
  6.4254606e-01
 -5.1105279e-01
  4.4064086e-02
  2.7762918e-02
  4.4571188e-01
  3.1655193e-03
  3.7525617e-02
  4.5878226e-01
 -7.2041238e-03
  2.6827955e-01
  1.1312930e-01
  5.4270387e-01
  7.0598409e-02
  3.5033949e-02
  1.8275188e-02
  1.3598509e-01
 -7.6840281e-02
 -8.7260259e-03
  7.2106802e-01
 -5.3466880e-01
  2.0915279e-01
  3.1199320e-03
  9.6753705e-03
 -4.3253206e-02
  5.5827469e-02
  7.9852082e-02
 -5.5839308e-03
  2.8967015e-02
  2.5582030e-01
  1.2482600e-01
 -1.0540565e+00
 -3.0251994e-04
 -1.7309816e-03
 -5.7062036e-01
 -7.3368065e-02
 -3.9749718e-01
  1.5314056e-01
 -6.7376517e-02
 -6.3163376e-01
  1.5099281e-01
 -4.1718986e-03
  3.9000614e-03
 -3.4128419e-01
 -3.4073357e-02
  6.2123671e-02
  5.8484125e-01
  1.5691271e-01
 -4.0870246e-01
 -3.7947573e-02
 -2.3169879e-02
  9.5181689e-02
  5.3925604e-01
  2.5552130e-01
  1.8077083e-01
  2.7652865e-02
 -2.3528200e-02
 -9.1228716e-02
  5.4980946e-01
  4.1405499e-01
  2.1648596e-01
  2.4410967e-02
 -4.4351466e-02
 -3.0596223e-01
 -3.4343377e-02
 -2.9877845e-02
  7.7986635e-02
  1.8714577e-01
 -3.0097123e-02
  1.0047469e-01
 -1.4604539e-01
  2.4563158e-01
  9.4158389e-02
  1.1762696e-02
  2.3928902e-01
 -3.1596592e-01
  2.7598494e-01
  2.0685343e-01
 -8.1681244e-02
 -9.7400155e-03
  4.1814813e-01
  4.4892269e-01
 -1.5114458e-01
  5.1421267e-01
 -2.3157287e-01
 -2.5400350e-02
  3.0052337e-01
 -1.6301399e-01
 -1.4738199e-01
 -2.3932697e-02
  3.4277469e-01
 -1.0713125e+00
  4.0107772e-01
 -4.3155727e-01
  2.7149722e-02
 -1.6493419e-01
 -3.4302393e-01
 -5.2180585e-02
  1.2658758e-01
 -8.8495584e-03
  4.5379981e-02
  4.0163130e-01
  1.7970407e-01
  5.6030321e-01
 -1.1930867e-01
  2.1443442e-01
 -1.5084127e-01
 -7.9200327e-01
 -4.6797812e-02
 -1.0644693e-01
  2.6496463e-02
 -3.8956068e-02
  3.9249146e-01
 -5.4203138e-02
  6.6739418e-02
 -1.6186467e-01
  5.2056229e-03
  6.5406740e-02
 -9.2703998e-03
 -1.2542441e-02
  1.1945444e-01
  7.4565038e-02
  9.7007668e-03
 -1.2459133e-02
  5.2259758e-02
 -2.7844808e-01
 -4.9766898e-02
  2.4373222e-02
  1.5969576e-02
  5.9739184e-03
 -1.4886648e-02
  4.8548974e-02
  9.8274268e-02
  7.3569447e-02
 -5.8199704e-02
  2.8885866e-02
 -4.4033416e-02
 -3.6826141e-02
  7.7761486e-02
  3.0562587e-02
 -3.8413756e-02
 -4.9480423e-03
 -1.6319662e-02
 -6.6164866e-02
  9.2257351e-02
  1.0859679e-02
 -1.1707934e-02
 -5.7817440e-02
 -1.5268545e-01
 -1.1419684e-01
  2.2869021e-02
  5.7423055e-02
  2.9437214e-01
 -2.6976760e-02
  2.8620675e-02
  3.0933892e-02
 -8.2624301e-02
  2.6780143e-01
  1.2296243e-01
 -8.6168805e-03
 -4.2948853e-03
  2.4949604e-01
  3.4826604e-01
 -7.5659150e-01
  5.8491617e-01
  2.4001105e-01
 -2.8917921e-01
  2.0910320e-01
 -4.3197479e-02
  7.8134727e-01
 -6.1372656e-01
  2.9607281e-01
  3.4164768e-01
 -3.1863725e-01
 -1.5325287e-01
 -8.8316613e-01
 -3.4064618e-01
 -8.6852461e-01
  2.9808056e-01
 -4.2964239e-03
 -1.1427288e-03
 -9.8986608e-01
 -5.2743733e-01
 -3.4786570e-01
  2.6944444e-02
  1.6342458e-01
  8.9030075e-01
  3.8253583e-02
 -3.7758973e-01
 -9.0024590e-01
 -8.7950623e-01
 -2.3060800e-01
  9.9265814e-02
 -6.3847206e-03
 -9.1364600e-02
 -6.5592682e-01
 -3.6895251e-01
 -6.0191169e-02
  2.3480093e-01
 -2.3036085e-01
 -1.2165567e-02
 -1.4923882e-01
  2.0084791e-01
  1.0895130e-01
  2.7790996e-01
 -2.6782617e-01
  1.0600859e-01
 -4.3330073e-02
 -3.9187111e-02
  4.3676618e-01
  5.3190116e-02
 -2.4355808e-02
  8.4442524e-03
 -1.3358937e-02
  7.0712157e-02
 -2.2410401e-04
  1.6936933e-01
  1.0278516e-01
  9.8248973e-02
 -1.4586478e-02
 -5.4039769e-02
 -6.0005229e-02
  1.3276285e-01
 -7.0351116e-02
  1.1485577e-02
 -1.4125261e-01
  5.5050839e-02
 -1.0814329e-02
 -7.1726944e-03
 -9.0971634e-02
  7.4133217e-02
  1.4241736e-02
 -4.5551406e-03
  9.3620855e-01
  1.0229227e-01
  6.9901656e-04
  9.7053267e-02
 -1.5809512e-02
  2.2333900e-02
  6.9894046e-02
  1.1798899e-02
  1.3772652e-02
  1.1394643e-01
 -4.5469087e-02
  1.0849930e-01
  2.2164279e-01
  6.0846660e-02
  5.4505013e-02
 -2.0525614e-02
 -9.4960523e-01
 -2.5430966e-02
  4.9227318e-03
  1.3630406e+00
  3.3011121e-01
 -1.3118282e-01
 -2.7636413e-02
  3.8111456e-02
 -6.6582543e-01
  7.9593502e-02
  6.7515798e-02
 -1.5075941e-01
 -2.6442936e-01
  4.9540658e-02
  3.0345377e-04
  4.1880675e-02
  6.8824276e-02
 -2.0868267e-01
 -8.6376093e-02
  3.8748834e-02
  2.1559814e-01
  7.9305749e-03
 -1.2660705e-02
 -2.0376388e-02
 -3.9828643e-02
  2.8053103e-02
  4.4275936e-02
 -9.3434736e-02
 -5.1429734e-02
  2.9801732e-02
 -5.1679377e-02
  1.2246252e-01
 -3.3970067e-01
 -4.6104705e-04
 -7.3787525e-02
  2.3989259e-01
 -1.5006301e-02
 -3.2771010e-02
 -6.2655685e-03
 -4.9463905e-02
  5.3864110e-02
 -3.3404894e-02
 -5.0075535e-02
  1.2129071e-01
 -5.0856251e-02
 -1.8593580e-01
  1.3567682e-01
  2.0770166e-02
  3.4398973e-02
 -3.0202428e-01
 -1.5894553e-01
 -3.2779232e-02
  1.0501380e-01
 -7.9106241e-01
  4.8736855e-04
  1.9372795e-02
 -7.4425220e-02
 -1.1600607e-01
 -7.4210912e-02
 -7.8070220e-03
  9.2403099e-02
 -7.9635799e-02
 -2.4048944e-03
  4.4170953e-03
  1.3360519e-02
  5.7298028e-01
  1.4397184e-02
 -3.4271842e-01
  1.2536496e-01
  2.9602364e-02
 -3.1342146e-01
 -7.8406446e-02
 -6.8431906e-04
  1.4682941e-01
 -6.6938929e-02
 -1.3931963e-01
 -1.4214655e-02
 -2.8707288e-02
  2.9167658e-01
 -4.2054892e-02
  4.0580817e-02
 -5.4052781e-02
  3.3680793e-02
  4.8968904e-02
  1.4343503e-02
 -5.9895184e-02
  3.3972185e-02
  3.1336769e-02
  8.6299855e-01
  2.0569190e-02
  1.5219258e-01
 -4.4135934e-01
  1.5322021e-01
  2.1317710e-01
 -3.2402560e-01
  1.9959237e-01
  7.1970028e-01
  5.5498898e-02
 -1.2484173e-02
  3.6075842e-01
  2.7264854e-01
  3.0583456e-01
  1.7526624e-01
  1.2085643e-01
 -8.4431022e-03
 -1.9771303e-01
  4.5987061e-01
  2.3416026e-01
  8.7146330e-01
 -2.5773600e-01
 -8.1048101e-01
  1.8956251e-01
 -1.7473720e-01
  6.9261456e-01
  5.7429707e-01
  4.7595891e-01
  3.0573818e-01
  5.2774504e-02
  2.9316166e-01
 -2.6021546e-01
  1.5020823e-01
 -7.3115611e-01
  7.9728866e-01
  1.0360080e+00
 -8.1401393e-03
 -1.0093893e-01
 -9.2752844e-02
  7.3272251e-02
 -2.0050780e-01
  2.5875872e-01
  1.2558761e-01
 -1.3148559e-02
 -7.1569376e-02
  1.7824885e-02
 -7.2895609e-02
 -3.0370126e-02
 -1.4607008e-03
 -7.4757263e-02
  1.0414585e-01
  1.7021357e-01
  8.9979813e-02
  4.5850452e-02
  1.6526681e-01
 -2.3036402e-02
 -5.8367845e-02
 -2.0139262e-01
 -3.5932142e-02
 -8.0237560e-02
 -8.1910752e-03
 -2.3337863e-01
  8.1954841e-03
 -1.0863801e-01
 -1.1581924e-02
 -1.3585356e-01
  1.2014857e-03
  1.2255789e-01
  1.2125833e-02
 -4.1964490e-02
  5.4962795e-02
 -9.5819272e-03
 -3.6661503e-01
  3.9163473e-01
 -8.6920112e-03
  1.0238802e-01
 -3.3106077e-02
  8.9787468e-02
  5.8878992e-02
 -1.1010300e-01
 -8.9432839e-03
  2.8891578e-02
 -4.6305194e-02
  1.5694384e-02
 -2.3166724e-02
  7.4217888e-03
  1.4958552e-01
  1.4782490e-01
  8.9437775e-03
 -8.3713561e-02
 -3.8173112e-01
 -1.1842722e-01
  3.9845097e-01
 -2.4024393e-02
 -1.5493007e-02
  1.5965836e-02
  8.5909903e-02
 -1.9171701e-01
  6.2339026e-02
 -4.8876498e-02
 -1.4425644e-01
 -3.0403845e-03
 -1.1979852e-01
 -1.8969338e-02
  1.1899558e-01
 -3.6017276e-02
 -2.0926099e-01
 -5.7657756e-02
 -5.1458096e-03
 -1.6134907e-02
  1.5165859e-01
  4.5657754e-02
  4.3721102e-02
  8.4645353e-02
 -1.6743800e-01
  8.4174395e-02
  1.5464009e-02
 -7.3455609e-02
  9.5454924e-02
  5.8965489e-02
  2.1630030e-02
 -1.4967924e-01
 -1.5841550e-01
  1.7241718e-02
 -1.8556012e-02
  3.3177730e-02
  4.1077420e-02
 -1.7339242e-01
 -9.4440922e-02
  6.2475629e-02
 -5.2287346e-03
  5.8884516e-02
  1.0559175e-02
  6.5727913e-01
  4.8166665e-01
 -8.3186990e-01
 -2.3623031e-02
  3.6368351e-02
 -6.8038833e-01
 -1.8476726e-01
  8.8164330e-02
  6.0846931e-01
  1.3149259e-02
 -2.4212539e-01
 -7.3985562e-02
 -1.4828812e-01
 -6.0658836e-01
 -2.5194624e-01
  9.2759863e-02
  1.4496635e-01
 -4.5306068e-03
  1.5310948e-01
  2.6503611e-01
 -4.1600803e-01
 -4.5017757e-02
  4.3944426e-02
  2.2175834e-01
  1.2292569e-01
 -2.0922692e-01
  8.4752107e-01
 -3.1292468e-02
  1.6061075e+00
 -2.2919707e-02
  1.2420044e-02
  2.3186477e-01
 -4.7793172e-02
  8.9185782e-02
 -4.6030310e-01
  1.0331789e+00
 -9.3453042e-03
  1.8879817e-01
  4.3060653e-02
  4.7495514e-02
 -1.3017327e-01
  4.4825502e-02
  4.7659576e-02
  2.6037896e-01
 -6.0123026e-02
 -2.9288810e-02
 -7.6356836e-02
 -1.5995279e-01
 -1.2857326e-02
 -2.0717889e-01
 -2.3871720e-01
  8.0454521e-02
 -1.2693761e-02
 -9.2538167e-03
  1.9563643e-02
  5.5823911e-02
  2.2145789e-02
  5.8195975e-02
  6.4508773e-02
 -1.9889321e-02
 -1.0249023e-01
 -4.1260269e-02
  8.2349151e-02
 -1.3307299e-01
  7.7193044e-02
  4.5718346e-02
 -2.4192337e-02
 -3.8649943e-03
  8.9124873e-02
 -1.6168172e-02
  2.1962695e-02
  5.9369877e-02
  8.5641660e-02
  2.5448877e-01
  6.8776838e-02
  2.0242503e-02
  3.0264048e-02
  2.3094733e-01
 -2.1528384e-02
  9.3769602e-02
 -9.7596101e-02
  7.1024224e-02
 -4.0898681e-02
  2.5683865e-02
  1.8310724e-02
  4.0407769e-02
  3.6902323e-03
  4.1078949e-01
 -1.0800412e-01
  3.4335602e-02
  1.1875591e-01
 -8.3988637e-02
  1.2709505e-02
 -2.7453663e-02
  3.4222275e-02
 -4.5553677e-02
  1.6783502e-02
  8.4513724e-02
 -1.0543028e-02
 -6.3896894e-02
 -5.2643694e-02
  1.1673262e-02
 -4.4404346e-02
  6.8848193e-02
  3.8086705e-02
  1.7159408e-02
  2.5589436e-01
  3.7301332e-02
  3.4862973e-02
  1.1376949e-02
 -2.3263149e-02
  1.8174561e-03
  2.4803279e-02
  1.0076136e-02
 -2.7103323e-02
 -1.1136686e-01
  7.1662992e-02
 -2.4446636e-02
 -1.1004477e-01
  9.2968732e-02
 -1.1574907e-01
  2.5290826e-03
 -2.5562784e-03
  1.7859373e-02
 -1.9546924e-03
 -1.8193908e-02
  9.1857553e-02
  1.3756651e-01
  8.3862524e-04
 -3.9008018e-03
 -4.4250403e-02
  4.7127628e-01
  8.7533921e-02
  2.0973450e-01
  2.1230757e-01
  8.5845155e-01
  7.5644575e-02
 -4.0328927e-02
 -3.9176866e-01
 -3.5805929e-02
 -3.4965396e-02
 -5.0970633e-02
  3.2536387e-01
  2.1621275e-01
  1.5360491e-01
  4.4833552e-03
 -2.3966283e-04
  5.9951324e-02
 -2.3145564e-01
  8.1531033e-02
 -1.8138266e-01
  1.5911105e-01
  4.0740550e-02
 -2.3529495e-01
  5.8357343e-03
  9.4218720e-03
  3.7118524e-01
  1.9543695e-01
 -2.1261621e-02
 -1.2009600e-01
 -1.6046314e-02
  3.2928273e-02
  4.0564291e-02
  5.0208107e-02
 -3.1849930e-01
  1.3594575e-01
  2.8030995e-01
  9.9038765e-02
 -2.6947580e-02
  1.6370778e-01
 -1.1267837e-01
  1.1483175e-02
  2.8271809e-02
  1.8683591e-01
  3.8797554e-02
  1.0892759e-01
 -4.0831155e-01
 -2.7545527e-02
  2.4969099e-02
 -4.3775178e-02
  3.8493073e-03
 -9.4967313e-02
 -1.2356961e-01
 -6.7831231e-03
 -1.1799270e-01
 -1.0447276e-01
 -3.8996190e-02
 -1.9069187e-01
 -2.3554957e-01
 -1.1210992e-01
  1.4438093e-01
 -7.9780258e-02
  3.1511214e-02
  2.3290627e-03
 -2.0083508e-01
 -3.1399392e-02
 -7.1002796e-02
 -2.7168161e-01
 -7.6132822e-03
  5.8329180e-02
 -6.6744462e-02
 -8.1607640e-02
 -4.1869408e-01
  1.0660764e-01
 -1.4946720e-01
 -7.1131065e-02
 -5.4165833e-02
 -6.6666221e-03
 -5.1880470e-03
  2.5733298e-02
  1.4486346e-02
  1.5135314e-02
  7.4113704e-02
  2.5931351e-02
  4.4603560e-02
  7.0434436e-02
  3.7596330e-02
 -3.0701272e-03
  2.0429283e-02
  7.5775601e-02
 -1.0639073e-02
 -8.4164843e-02
 -4.2411704e-02
  4.1504633e-03
  7.7954292e-02
  7.1384355e-02
 -7.7632941e-02
  3.7434959e-01
 -1.6655239e-01
  5.2312050e-02
 -2.6345439e-02
 -2.7434198e-02
  1.9773349e-02
  6.5653034e-02
  9.2292324e-02
  2.1734290e-02
  2.3946773e-02
 -8.8940017e-02
 -2.6742343e-02
 -9.0487391e-02
  3.3854604e-02
 -3.3986412e-02
  1.8137939e-02
 -2.5393046e-02
 -1.6933398e-01
  1.1882802e-02
 -5.5665124e-02
  1.1668830e-01
  1.9412163e-01
  2.3424027e-02
  4.1165195e-02
  3.1554878e-02
  2.2812700e-01
 -9.2593141e-02
 -6.9070766e-03
  6.5701902e-02
  5.1073823e-02
 -4.9479693e-02
  6.7312405e-02
 -1.6086245e-02
 -7.6738976e-02
 -1.4099655e-01
  1.4311329e-02
 -4.6265731e-04
 -3.1436741e-02
  1.6301122e-01
 -2.2899583e-03
  1.5041003e-02
 -6.5771535e-02
  2.0499657e-01
  9.6137561e-02
  3.6600582e-02
 -6.2055148e-02
  9.2497654e-03
  8.6585470e-03
 -3.2844283e-02
 -1.5021649e-01
 -1.2230319e-01
  1.8091103e-02
 -2.5007352e-03
  6.4482309e-02
 -9.4488457e-02
 -2.7497293e-02
  1.4603469e-03
  8.7007083e-02
  1.3109221e-02
  2.1515116e-02
  1.0974398e-01
 -7.3268540e-02
 -4.9891267e-02
 -3.3387981e-02
 -8.0161020e-02
  2.2295156e-02
 -5.9265114e-02
  2.8229267e-03
 -5.1153660e-02
  1.0464242e-01
  8.5326768e-02
  1.1823010e-02
  5.7245921e-02
 -3.9537195e-02
  3.3673808e-02
 -1.1529856e-01
  6.2058091e-02
  2.5830522e-01
  1.8988689e-04
  8.7196967e-03
  1.7523107e-01
  2.0114906e-01
  1.0385323e-01
 -4.1429317e-01
  4.3763584e-01
  2.7487355e-01
  8.3786480e-02
  2.5520911e-02
  1.4974239e-01
  5.3695627e-02
  4.0083252e-02
 -9.3863487e-02
 -7.0635356e-02
  8.1312314e-02
 -1.5905660e-02
 -4.1425323e-01
  1.2096087e-02
 -8.4947929e-02
 -2.6575446e-01
  8.4601948e-04
 -2.5046259e-01
 -4.2547233e-02
 -1.2708697e-01
  3.1214792e-02
 -1.1171618e-02
  1.0508796e-01
  9.2937775e-02
  1.5969476e-01
 -1.3022819e-03
  9.2918053e-02
  1.1645006e-02
  2.1489714e-01
 -9.4063289e-02
  1.2883017e-02
  3.4245372e-02
 -4.1617610e-02
  9.0664610e-02
  7.9630770e-02
 -6.2378213e-02
 -2.7691802e-02
  4.2355457e-01
 -4.9892336e-02
  6.8605505e-03
  2.8605256e-02
 -9.9745113e-03
  3.4323867e-02
 -3.8171321e-01
  2.3155895e-03
 -4.5915104e-02
 -5.5761695e-01
 -5.2745286e-03
 -2.1530384e-02
  5.3032070e-02
 -1.5327423e-02
 -2.5818296e-02
 -5.5755828e-02
  3.7005026e-02
 -1.5658781e-02
 -2.6324177e+00
  2.3641109e-03
  3.3869054e-02
 -7.8626640e-02
  4.1082438e-02
 -1.6110482e-02
 -8.7943546e-02
 -8.2316831e-02
  8.0741473e-02
  6.8104312e-02
  8.8503193e-03
 -3.8594663e-02
  1.8979087e-02
  1.1017580e-01
  1.6636515e-02
 -9.2652880e-02
 -1.7247686e-01
 -4.9942575e-02
  1.4843398e-01
  1.6944114e-02
  1.6211439e-02
 -3.7243739e-02
 -1.0440002e-01
 -8.9808322e-02
 -3.0686794e-02
 -5.1534958e-02
 -8.6282834e-02
  2.3771670e-02
 -6.3330680e-02
 -1.1221640e-01
  5.6613398e-01
  2.2548623e-01
  1.4689264e-01
 -2.1995054e-01
  3.0784664e-01
  3.7538630e-01
  9.5175296e-02
 -2.3335283e-01
  3.5134009e-01
  1.6693959e-01
 -8.0631626e-01
 -9.1725093e-01
  1.0891553e+00
 -7.7994478e-01
  8.1083900e-01
  1.7433204e-01
  6.9794279e-01
  5.3772740e-02
 -1.2384898e-01
 -4.8241749e-01
  3.3969858e-01
  4.6673277e-01
 -9.6487266e-01
  1.9846639e-01
 -2.9629284e-01
 -1.1689634e+00
  4.7036973e-01
  1.7412987e-02
  5.9241168e-02
 -1.7769722e-02
  7.3924208e-01
 -3.3209212e-02
 -7.3073649e-01
  6.9803017e-01
  1.2324589e-01
 -8.5260749e-02
 -1.0183603e-01
  3.3385206e-02
 -3.0188188e-01
  2.3984797e-02
 -2.4943034e-01
 -1.5892202e-02
  4.4260916e-01
  9.6168762e-01
  1.0858404e-02
  7.6402879e-01
 -9.2669889e-02
 -1.9872107e-01
  1.3096813e-02
  1.8275914e-01
  1.8063708e-01
  1.2722065e-01
 -2.7836475e-01
 -7.1132071e-02
 -6.0602911e-02
  8.2475953e-03
  5.5957388e-02
 -1.0608234e-01
  5.7929248e-02
 -5.2972015e-02
 -4.6970453e-02
 -1.4051647e-01
  5.4144051e-02
  3.9672799e-02
  1.0748022e-01
 -1.2070175e-01
 -4.8009593e-02
  2.2726123e-01
 -1.3531916e-01
  6.9280816e-03
  1.1443011e-01
 -1.1074589e-02
  7.8235239e-02
  2.8267736e-02
  1.7368482e-02
  2.8003257e-02
 -7.8227177e-02
 -7.5180875e-04
  5.0290044e-02
  1.2752657e-01
  5.1731251e-02
  8.2539683e-03
 -3.0736104e-03
  7.1476281e-02
  8.5888915e-02
 -1.2382268e-01
  2.0143401e-02
 -2.7377466e-03
 -2.0510808e-02
 -1.4403339e-01
  3.7831482e-01
  3.9612764e-01
  2.1624556e-01
 -2.0123739e-02
 -2.9707229e-01
  1.0887229e-02
 -3.4621722e-01
 -1.7982893e-02
 -5.4670610e-02
 -8.5437931e-03
 -1.5316877e-02
 -9.5472233e-03
 -1.2860662e-01
 -6.1042947e-01
  2.6264947e-02
  1.5043262e-02
 -2.9016465e-01
  2.8736161e-02
 -2.7972662e-03
 -9.0735324e-02
 -6.7055976e-01
 -3.7454963e-02
 -1.0815270e-01
 -1.9132484e-01
 -8.7288305e-02
 -1.2994382e-01
  1.8482016e-02
  2.2309754e-02
 -1.9875545e-02
  2.2385269e-02
 -4.8799757e-03
  1.9522637e-02
 -2.4641164e-01
 -4.2973943e-02
  7.0565417e-03
 -1.1810938e-02
  8.7349564e-02
  4.7694452e-02
 -7.0563413e-02
  1.6470557e-01
  8.1365027e-02
  1.1769513e-01
 -8.7123280e-03
  1.5156569e-02
 -6.6628004e-04
 -3.7544128e-03
  3.6104452e-02
  3.9564934e-02
 -2.4761520e-02
 -2.3200551e-02
 -1.0221624e-02
 -6.8338342e-02
 -4.5113657e-02
  9.8348916e-02
  1.8814071e-01
 -3.9178662e-02
 -9.5638677e-02
  2.4712197e-02
 -7.8366976e-04
  4.6125785e-02
 -1.4052351e-01
 -1.4281452e-01
 -3.6739927e-02
 -2.8559046e-02
  1.6631736e-01
  8.2717892e-03
 -5.3382438e-02
 -4.5528103e-02
  1.1201217e-02
  1.2090804e-01
 -3.2440521e-02
  1.3707716e-02
  2.6728162e-01
  2.4246901e-02
  7.2573096e-02
 -2.7480680e-02
 -9.2622880e-03
  3.7793983e-02
 -5.2606899e-01
  6.4213164e-02
  3.4490070e-01
  4.1983165e-02
 -4.8059919e-01
 -6.3294664e-02
  2.7990434e-03
  1.1316434e-02
 -1.4259060e-01
 -6.7041353e-03
 -8.7404169e-02
 -1.5054487e-01
  2.1846782e-01
  6.7616975e-01
 -2.4914654e-01
  8.8810042e-02
  2.5999829e-01
 -6.0716027e-01
 -5.4907185e-01
  1.3245927e-01
 -3.5865909e-01
 -1.3363884e-02
  3.9758712e-02
  4.6729454e-01
 -3.0017805e-01
  4.3949983e-03
 -8.0905127e-04
  7.5791143e-02
 -2.1281584e-01
 -4.9445875e-02
  1.9535139e-01
 -1.0421953e-01
  7.0108968e-01
 -1.3413770e-02
  1.6747190e-02
  2.0546019e-02
 -7.6782137e-02
  2.5088438e-01
 -3.2067634e-02
  5.6008333e-01
  8.1372403e-02
 -4.7166254e-03
  2.0915018e-01
  5.6803010e-02
 -1.9758074e-02
  1.9249879e-01
 -4.4536058e-02
  1.0684164e-01
 -5.7726270e-03
  1.6482362e-01
  1.8069327e-02
 -8.3646700e-02
  4.1695163e-01
 -6.5725452e-01
 -1.6570961e-01
  7.1685451e-01
  1.4550571e-01
 -1.9220017e-01
 -1.1790848e+00
 -5.8584934e-01
 -8.1790721e-01
 -1.6043007e-01
  5.7567888e-01
  2.2395010e-01
 -7.3126322e-01
  1.3566649e-01
 -1.3019593e-02
 -1.4828689e-01
 -8.5294300e-01
 -7.3645115e-01
 -9.3460268e-01
 -7.3564035e-01
  6.7657039e-02
  7.5084740e-01
 -4.7016516e-02
 -1.7818350e-01
  5.6434196e-01
 -4.7328255e-01
 -1.0602494e-01
  1.0443939e+00
 -4.7756341e-01
 -2.2922252e-01
 -2.9820156e-01
  5.2581698e-01
 -5.6747639e-01
  7.3918998e-02
  4.6984211e-01
 -6.0106188e-01
  1.7033669e-01
  5.5588581e-02
 -6.9909446e-02
  3.7559062e-02
  8.7344259e-02
  7.8886074e-01
  1.1070990e-02
 -3.1661555e-01
  2.2835073e-01
  3.2472470e-01
  5.0888824e-01
 -2.7937353e-01
  7.9095429e-03
 -4.1475806e-02
 -9.0461418e-02
  2.4828883e-03
  3.1533980e-01
  6.4836346e-02
  1.5248817e-01
 -1.1253591e-01
  4.4664346e-02
  6.7061908e-03
  2.8532399e-02
 -3.6170177e-02
 -8.2670962e-03
  1.9046815e-02
 -2.7912162e-02
  1.3245536e-01
  1.5788712e-01
 -1.9287221e-02
  1.7851367e+00
  1.7246020e-01
  5.4399572e-02
 -9.3144514e-02
 -5.5760019e-02
  8.6898291e-03
 -7.7407807e-02
  5.4110896e-02
 -6.2097184e-02
  2.9296753e-01
 -5.2646536e-04
  3.0030917e-02
  4.7778297e-02
  1.4845934e-03
  6.7989290e-02
  7.5334698e-02
  4.2749796e-02
 -4.8897974e-03
 -3.8596164e-02
 -6.0922455e-02
 -2.3268756e-02
 -1.2577392e-01
  3.0441886e-02
 -9.7167626e-02
 -1.3981962e-01
  2.8297827e-01
 -3.9280970e-02
 -3.3048291e-02
  1.2241399e-01
 -1.5813775e-02
  6.1623371e-01
 -1.0441344e-01
 -1.6182117e-01
  5.3774498e-02
 -1.1636604e-01
 -5.1890551e-03
 -1.7143860e-01
  1.0721839e-02
  2.4235968e-02
 -4.7992840e-03
  4.9873870e-02
  5.7747895e-03
 -3.0245787e-01
  2.0821474e-02
 -1.5038046e-01
 -2.9033706e-02
  9.0979703e-02
 -8.6014066e-04
 -3.7251905e-02
 -6.4765945e-02
  3.2710414e-03
 -8.7321931e-03
 -2.0195011e-02
 -4.9378194e-02
  4.6791691e-01
  2.8077669e-02
 -6.0794715e-02
 -1.2330346e-02
 -9.6356645e-03
 -8.5965529e-02
 -4.3752082e-02
 -2.0096686e-02
  4.9182037e-03
 -3.0967822e-02
 -2.0401036e-02
 -3.4040097e-02
  5.4312891e-01
 -2.7116245e-01
 -1.3216829e-01
  9.7129747e-02
  1.6173613e-01
  3.5140018e-03
 -1.4584131e-02
  1.1427352e-01
 -3.9212346e-01
  1.2734956e-01
  4.7075561e-01
  2.4720198e-02
  5.0326297e-03
 -9.0464726e-02
  4.7033122e-01
  1.1025009e-01
  3.5392147e-01
 -3.0692639e-03
  6.2207997e-02
 -6.6523927e-01
 -3.5418293e-01
  1.3882060e-02
 -2.0722911e-01
 -9.6839331e-03
 -8.4179305e-02
 -2.5409490e-02
  3.1358995e-02
  1.6309345e-01
 -1.7869473e-02
 -3.1678569e-02
  2.0362924e-01
  8.5510544e-02
  3.5946585e-02
  2.6882272e-02
  2.2998840e-01
  3.6307007e-02
 -1.9093059e-01
  9.8057343e-03
  2.9182198e-02
 -5.5897618e-03
 -1.8734641e-02
  3.0624658e-01
  8.9499414e-02
  4.6273265e-02
 -6.9502011e-02
  3.3634660e-01
 -1.4071208e-01
  1.0796829e-01
 -8.7346666e-02
  1.0792977e-02
  7.3249057e-02
 -1.5690008e-01
 -5.1474023e-01
 -5.4009587e-01
  3.3173999e-01
 -2.3749264e-01
 -8.4855241e-01
 -9.4054395e-01
 -4.9954993e-01
  5.7237542e-01
 -5.3250688e-01
 -4.5961368e-01
 -3.1973493e-01
 -1.3450090e+00
  2.7706134e-01
 -8.7311578e-01
  7.4978966e-01
 -1.4875267e+00
  6.6024894e-01
  2.6899171e-01
  8.4492898e-01
 -4.1943842e-01
 -2.1901231e+00
  7.6520270e-01
 -5.3985274e-01
  1.1379194e-01
 -1.0895461e+00
  7.0949912e-01
  2.5140050e-01
 -7.4745488e-01
  2.3027848e-01
 -8.7397881e-02
 -4.6332777e-01
  2.0304602e-01
  1.3381382e-02
 -2.7658707e-02
  4.1640919e-01
  7.4846484e-02
  5.6157134e-02
  8.1083691e-01
  5.7715183e-01
 -5.0235403e-01
  2.4479493e-01
  3.1149568e-02
 -6.4773804e-01
 -7.4672699e-01
 -1.2028711e-01
 -1.3367190e+00
 -5.3831542e-01
  1.6834691e-01
  6.0557377e-01
  4.8950814e-02
  3.9245017e-04
  4.4358575e-01
 -3.5387257e-01
  1.1049922e+00
 -6.7968734e-02
  2.9263964e-02
  9.3100220e-04
 -4.6665423e-02
 -1.8753748e-01
  1.9000934e-01
  1.1400330e+00
  1.3649343e+00
  4.2931271e-01
  6.5173328e-02
  1.8111990e-01
  1.4288749e-01
 -3.8717097e-01
  9.2288069e-02
  1.2698513e-01
 -2.1244174e-02
  4.3829016e-02
 -6.5803401e-02
  1.3866906e-01
 -6.3156476e-03
 -1.4425145e-01
  9.3666084e-02
 -1.7074750e-01
 -5.1229149e-02
  3.3625279e-02
 -8.1961900e-02
 -1.4690098e-01
  8.3698452e-01
 -4.8942134e-02
  8.6491659e-02
 -2.1741223e-01
 -3.4544656e-01
  7.9005912e-02
  6.9595152e-01
 -3.1370029e-01
 -2.7626878e-02
  9.3847066e-02
 -5.9517208e-03
 -2.9209014e-02
 -1.0875460e-01
 -4.2590275e-02
 -4.8905320e-02
 -7.1022518e-02
 -3.4183675e-01
 -1.7186661e-01
 -2.3951868e-02
 -9.7699258e-03
  9.1781378e-02
 -7.5700760e-02
 -9.8322019e-02
 -1.8418556e-01
  9.5108803e-03
 -3.5065409e-02
 -5.0801519e-02
  1.4510077e-02
  7.6710870e-03
  3.3196274e-02
  4.8163217e-02
  3.4119654e-02
  5.0430343e-02
 -3.3506723e-03
 -4.8102522e-03
 -1.1821201e-01
  1.6286220e-01
 -1.8209349e-02
  1.2083025e-01
  6.1553463e-02
  2.5386453e-02
  2.9568978e-02
 -1.0634512e-03
  8.1361063e-02
  4.4027150e-02
  1.0007756e-01
 -1.8720041e-01
 -7.6233596e-02
  7.0240274e-02
  1.0514011e-01
 -7.0232958e-02
 -3.4845397e-02
 -2.9484026e-02
  1.0989504e-01
 -1.1315313e-01
  3.5494494e-03
  2.4218950e-02
  6.4703897e-02
  5.3219158e-02
  4.7738254e-02
 -3.1955987e-03
  4.8223045e-03
  1.8198714e-02
 -1.0775265e-02
 -7.5050160e-02
 -3.6856163e-02
  5.0655855e-03
 -9.4176792e-03
  3.0964481e-02
  9.4228312e-02
  3.3237357e-02
 -1.0932094e-01
 -3.3682447e-02
  1.8412868e-03
  1.0207500e-01
  4.6542536e-02
  4.0983789e-02
 -8.0048619e-03
 -1.4419323e-01
 -2.0889044e-02
 -8.1113979e-02
  2.0792807e-02
  1.5743539e-02
  4.9700123e-01
 -9.6909806e-02
  1.0053373e-03
 -1.3632435e-01
  7.5750387e-01
  1.7872676e-01
 -2.9699215e-01
 -3.0366668e-01
  4.8158556e-01
 -5.2481127e-01
  9.4160639e-02
 -1.0945635e-01
  4.6010077e-01
  5.4659933e-01
  3.4927183e-01
  6.1669397e-01
 -2.3390661e-01
  9.6340425e-02
  5.5851448e-01
  7.5787984e-02
  9.2215225e-02
  8.4535205e-01
  5.9248876e-02
  6.1066668e-02
 -1.9777866e-02
 -5.3210940e-02
 -1.0277174e-01
  2.5968345e-02
  6.3329649e-01
  3.0238152e-01
 -6.4744163e-01
 -4.4220227e-01
  3.9920554e-01
  2.5121666e-02
  4.1382357e-02
  2.7113694e-01
 -4.9365458e-01
  4.4271731e-01
  1.0040160e-01
  8.2084429e-01
  1.8716961e-02
  1.1219393e-01
 -3.5050452e-01
 -2.5819275e-01
  4.4776684e-01
 -1.4309709e-02
 -1.3416006e-01
  1.6374138e-01
  7.4574813e-02
 -2.1889850e-01
  8.4532693e-02
 -3.5057276e-02
  1.2754806e-02
  4.0282313e-02
 -8.4006086e-02
 -5.5068298e-03
 -2.8303537e-01
 -3.0554829e-02
 -5.6383424e-02
 -1.3789833e-03
  3.9545245e-02
  3.4603257e-02
 -1.4338501e-02
 -1.9772639e-03
 -6.8215467e-02
 -6.1419606e-02
 -2.1119924e-01
 -9.3000531e-02
  1.8009204e-02
 -2.2651052e-02
 -1.6008515e-04
 -1.7302841e-02
  6.9556370e-02
  3.6449585e-02
 -4.0224591e-01
 -4.3760499e-01
 -5.8192380e-02
 -6.9431253e-02
  1.1659471e-02
 -4.7995567e-02
 -1.2275787e-01
 -3.1170599e-02
 -4.1432679e-05
 -2.0630662e-01
 -1.0579283e-01
 -3.3032697e-01
  2.1589410e-02
 -3.1504054e-02
 -1.7151330e-02
 -2.0963738e-02
 -2.0415635e-01
 -2.0019859e-02
  3.3092055e-02
  6.8883806e-02
  3.1886935e-02
 -3.0524194e-01
  2.8660346e-02
 -1.4124329e-01
 -7.4662313e-02
  3.9372236e-02
  4.9237229e-02
  1.2312344e-01
 -3.6116537e-02
 -2.4203103e-02
 -7.6464661e-03
  3.9026912e-02
 -4.1084040e-02
  1.0997659e-02
  1.7606337e-02
 -2.4371715e-03
  1.6428251e-02
  3.3250030e-02
 -1.9489767e-02
 -7.0341133e-02
  3.5086222e-02
  1.6735611e-02
 -1.1947601e-01
 -8.6122572e-02
 -6.8535708e-02
 -2.6347870e-02
 -9.9452892e-03
  9.6727863e-02
  1.5298916e-01
  2.8695911e-02
 -1.6581815e-02
  2.9053772e-05
  8.1720531e-02
 -1.0321188e-01
 -4.8266980e-03
 -4.1792721e-02
  2.6047751e-02
  7.3954379e-03
 -4.7051698e-01
  2.0029829e-01
  2.6774630e-03
  1.4267305e-02
  4.7501974e-02
  9.3614135e-04
  5.6648073e-03
 -2.2018548e-02
  5.9357714e-02
 -7.4333787e-02
  1.1326773e-01
 -2.9065015e-02
  1.6758654e-02
  1.0043547e-01
  4.3932922e-02
  1.3757274e-03
 -6.9857128e-02
  3.2615420e-01
 -8.8198587e-02
 -1.2669896e-01
  6.2651955e-02
  7.2708331e-02
  1.9612575e-02
 -1.1809159e-01
  3.2838296e-02
 -3.9825685e-02
  1.2337458e-02
 -3.1622222e-01
  3.7108245e-03
 -6.8890760e-03
 -6.5361746e-02
 -2.8625665e-02
 -2.8689492e-02
 -8.5288979e-02
  4.5819975e-02
  2.3496407e-01
 -3.6254968e-02
  4.8113242e-02
  2.4586814e-02
  2.3307819e-02
  2.8189324e-02
 -1.8541249e-02
  1.0925379e-01
 -8.6415783e-03
 -2.2267774e-02
 -4.1902203e-02
 -4.3590013e-03
 -3.5604257e-02
  9.1286170e-01
 -3.2487792e-01
 -4.8361114e-01
  1.7313240e-01
  1.6147164e-01
  2.3269389e+00
  9.7281737e-03
  5.0362903e-01
 -3.0259622e-02
 -9.1731042e-01
 -1.4620997e+00
  1.1118388e-02
 -2.0152977e-01
  6.4332992e-01
 -1.2010476e-01
 -6.6728896e-01
 -1.1193275e-01
  2.6907998e-01
 -3.6472503e-02
 -4.7368187e-01
  5.8356935e-01
 -5.2690979e-02
  1.7030034e-02
 -5.7118587e-02
 -1.0041815e+00
 -7.4535340e-01
 -4.4463855e-01
  2.5272697e-02
  5.0601847e-02
 -8.3791333e-01
  3.5911423e-01
 -5.0436896e-01
 -7.0169383e-01
  3.8938928e-02
  6.8597525e-01
 -1.1618223e-01
 -4.7816563e-02
 -5.6153852e-02
 -4.8260294e-02
  1.2556477e-01
  1.2805122e-01
 -2.4366956e-03
  2.0376533e-02
 -2.2303982e-02
 -6.3921022e-03
 -1.3418557e-01
  6.2375939e-01
 -2.7739772e-01
 -1.6156261e-01
  2.1199881e-01
 -9.3389302e-02
  7.4424751e-02
  1.3720915e-02
  2.1492344e-01
  3.4498416e-03
 -1.6145324e-02
 -2.8622676e-02
  4.8002383e-01
  4.7975999e-01
 -8.5698776e-02
  1.0603071e-01
  3.1136239e-01
  4.5308864e-01
 -1.2295085e-02
 -4.0989575e-01
  9.1242984e-02
 -2.7779806e-01
  2.0967837e-01
  4.0837726e-01
  2.1965735e-01
  1.9488144e-01
 -7.7937824e-01
  1.1304972e-01
 -4.4558352e-01
  1.9435740e-01
  1.4064151e+00
  8.2342672e-01
  5.8394335e-03
 -1.5617506e-01
  1.9521362e-01
 -1.3156395e-01
  1.7290184e-02
  3.0304354e-01
  8.5498050e-02
 -7.4649639e-03
  2.7403370e-01
  5.3855699e-02
 -2.5238594e-01
 -2.4133784e-01
 -3.7727047e-02
 -1.0007083e-01
 -1.4565396e-01
  2.2405853e-02
  4.9540885e-02
  1.1970957e-01
  2.3053156e-01
  5.6695482e-03
  1.7572053e-02
  1.7130019e-02
 -5.2415505e-03
 -5.6055430e-03
  1.8221818e-01
  2.3825582e-02
 -3.7284996e-02
  3.0520694e-02
 -3.6987163e-02
  5.4284349e-02
 -9.0163745e-02
 -3.6494650e-02
 -2.2177288e-02
 -5.4308966e-02
 -3.3772312e-02
 -6.8737239e-02
  8.4215790e-02
 -5.5339441e-02
  2.7688570e-02
  1.9560006e-01
  4.1954529e-02
 -2.5907259e-02
 -7.6311487e-01
  1.3190274e-01
  1.1495204e-01
 -2.8818771e-02
 -1.9856401e-02
  3.6205128e-02
  1.0430960e-01
  8.6869977e-02
 -7.2009765e-02
 -1.1673528e-03
 -2.4675135e-02
  9.8340027e-02
  9.5998384e-02
  5.0872188e-02
 -1.5033426e-02
 -1.0659242e-01
  1.5502600e-02
  1.0593574e-02
  4.3617012e-03
  3.9451566e-01
  1.3507238e-01
 -3.0469674e-01
 -1.9260960e-02
  2.5897771e-01
  6.2257860e-02
  1.9014698e-01
  1.0073211e-02
 -4.4834591e-02
  2.4921980e-02
  2.8411968e-02
 -3.7768357e-02
  7.2805673e-02
  2.3252627e-01
  1.3634671e-01
  4.3778688e-02
  3.8975868e-02
  8.6867295e-02
  5.1801104e-02
 -3.2259192e-02
 -9.6028693e-02
 -4.1577775e-02
 -8.1639007e-02
 -9.4505727e-02
  1.4591449e-01
  5.3707855e-03
 -5.7085272e-02
  3.3418532e-02
 -4.7489917e-03
 -3.4030918e-02
  7.2453991e-03
  1.9634569e-02
 -4.6236187e-02
  7.4397050e-02
  3.0024344e-02
  3.6480255e-02
  1.1719225e-02
  1.2831444e-02
 -1.1386786e-01
  8.1742994e-02
  3.6278613e-02
  5.5646829e-02
 -6.0821362e-03
 -9.9565666e-03
  9.9988200e-02
 -2.5660463e-02
 -6.5836005e-02
  4.7882259e-02
 -1.1009752e-01
  1.6274694e-02
 -1.9326134e-02
 -1.6812025e-02
 -9.6061751e-02
  8.9652374e-02
 -5.9459932e-02
  3.8648350e-03
  1.6660547e-01
  3.6026198e-02
  2.9048768e-01
 -1.9826092e-02
 -5.7582870e-02
  1.1736036e-01
  5.8809328e-03
 -6.1125131e-03
  8.6946987e-02
  4.9671963e-02
  2.2043958e-03
 -2.8917080e-02
  9.8029248e-02
 -2.1350183e-01
 -1.2435536e-01
  6.3894488e-02
 -4.3095086e-02
 -9.2570288e-03
  2.0771371e-01
 -1.3515884e-01
  1.0412428e-01
 -3.9021395e-02
 -2.4879796e-02
  3.6498800e-02
  4.8897490e-02
 -3.5464115e-02
  1.8995574e-01
 -2.5739643e-01
 -3.0673167e-02
  2.1824200e-02
 -9.3588736e-03
 -1.1808692e-01
 -4.8195526e-02
  1.6897004e-02
 -7.3970124e-02
 -4.4332120e-01
  3.0185452e-01
  1.8055189e-02
 -1.7946038e-01
 -8.8304557e-02
 -7.4078731e-02
 -1.1125790e-01
 -6.0015630e-02
 -3.7834020e-03
  3.8793916e-04
  5.9048045e-02
 -8.0955170e-02
 -3.8229398e-02
  1.0147105e-01
 -9.2477081e-03
 -1.3392641e-01
 -1.0904281e-02
 -4.3776971e-03
  1.9763143e-01
 -1.4522020e+00
  2.9182460e-02
 -4.6919376e-02
 -5.3297702e-02
  1.1667087e-01
 -4.5966804e-01
 -2.6869893e-02
  4.2674698e-02
 -2.9389483e-01
  1.6779590e-01
 -1.8658996e-01
 -3.2649793e-02
  1.8025951e-01
 -4.2182106e-01
 -8.8790469e-02
 -7.0330594e-03
  1.4305109e-01
  2.6653308e-01
 -4.7161558e-01
  4.5990054e-02
  8.9322766e-03
 -1.4260331e-02
 -4.3727225e-01
 -2.6564330e-01
 -2.6845080e-03
 -3.4031700e-02
 -1.8259172e-01
 -1.5677483e-01
 -3.1894866e-02
 -1.0780669e-02
  6.8754718e-02
  2.7648446e-01
  1.0321941e+00
 -4.8783510e-03
  2.3202875e-01
 -7.1950955e-03
 -2.8635826e-02
 -2.0780037e-03
  3.4510949e-01
 -1.4183138e-02
 -6.5325119e-02
 -6.0814049e-02
 -2.1098375e-02
  1.2088881e-03
 -2.4228740e-01
 -3.4894936e-02
 -4.8181629e-03
  4.7248602e-03
 -8.2597129e-02
 -1.6364828e-02
  2.4264456e-01
  7.5144172e-02
 -7.4547596e-02
  4.4737896e-03
 -1.2965579e-01
 -1.7916757e-01
 -8.0892392e-02
 -2.5690870e-02
  1.0982694e-01
 -3.4705445e-01
 -1.2411337e-01
  3.5591986e-02
  1.5009475e-02
 -3.1847841e-01
 -5.3933032e-02
  7.2587491e-03
 -1.5755363e-03
  4.6436095e-01
  2.8432643e-01
  8.9308619e-03
 -7.7524356e-04
  1.5237326e-02
  2.0230129e+00
  6.5627998e-01
  1.4213660e-01
  9.6609759e-01
  9.9128938e-01
  1.0167231e-01
 -2.1806350e-01
 -1.1709909e+00
  1.0185745e-01
 -2.2252002e-01
 -2.1973994e-01
 -1.3677973e-01
  1.5079091e-01
  1.1401563e-01
 -1.0363530e-01
 -2.0050526e-01
  4.1359043e-01
 -1.3311797e-01
  1.7326084e-01
  1.5988737e-01
 -1.7631009e-01
  1.6298789e-01
 -1.0379729e-01
 -1.4762996e-01
  1.1761897e-01
  1.1454994e-01
 -2.1118280e-01
 -1.2418342e+00
  4.8928443e-01
 -1.2402372e-01
  1.9641706e-01
  2.9572999e-01
 -1.3064188e-01
 -1.1637595e-01
 -3.9678213e-01
 -1.0182422e-01
  1.5896767e+00
  2.1256840e-01
  1.2103593e-01
  1.3360140e-01
  1.0483067e-01
  1.2044337e-01
  1.2592481e-01
 -1.7128567e+00
 -1.3573594e+00
  1.7182759e+00
  1.0970204e-01
  2.5562546e-01
  1.1502681e+00
 -3.3813941e-01
  1.9473910e-01
  1.8523701e-01
 -1.1317936e+00
 -1.8837824e-01
  1.7831168e-01
 -1.3289024e-01
 -1.4582667e-01
 -1.1592218e-01
 -1.0135293e-01
 -1.4406168e-01
 -1.9218454e-01
 -1.0356876e-01
 -4.3271321e-01
  6.3735384e-01
 -1.0173826e-01
  1.0214062e-01
  5.2785653e-01
  1.2899813e-01
 -1.1350250e-01
 -1.3370936e-01
  2.0828807e+00
 -1.2510066e-01
  2.0655954e+00
 -1.1196572e-01
 -2.6508886e-01
  1.5033847e+00
  1.1363206e-01
  2.0130989e-01
  1.6520318e-01
  5.3342432e-01
 -1.1893972e-01
 -5.7021880e-01
 -3.1698015e-01
 -1.7223731e-01
 -2.9302737e-01
 -1.3774715e-01
 -1.3246985e-01
  1.4753670e-01
 -1.4559795e+00
  2.6278669e-01
 -5.7452655e-01
 -9.5245314e-01
 -2.1239315e-01
  4.1020039e-01
 -1.2557304e-01
  1.0060462e-01
  1.7290255e-01
 -1.7451738e+00
  1.5339324e-01
  1.1278852e-01
 -1.1350401e-01
  1.3122791e-01
  1.8070694e+00
  2.1284887e-01
 -1.0455805e-01
  1.1257877e-01
  1.1833065e+00
 -1.0141149e-01
 -2.8843638e-01
 -1.1844586e+00
 -1.0542633e-01
  4.2102665e-01
 -1.1548563e-01
 -2.8970104e-01
  1.0211519e-01
  6.4416879e-01
  3.1839100e-01
  1.7578433e+00
  7.8873706e-01
  1.2432446e-01
  2.8470057e-01
  1.1571009e-01
  1.8063858e-01
  4.2521870e-01
 -5.3941971e-01
  1.2511969e-01
  5.5783790e-01
  4.9628580e-01
  1.2229958e-01
  2.9751766e+00
  1.1695526e-01
 -1.0965799e-01
  2.1862011e-01
 -1.2807623e+00
 -1.9469839e-01
 -1.2943074e-01
 -5.5756342e-01
  1.2608483e-01
  3.7476572e-01
  1.1372698e-01
  1.2181253e-01
 -2.4467862e-01
 -2.6214927e-01
 -1.0323167e-01
 -3.1990254e-01
 -9.8033297e-01
 -2.2663224e-01
 -1.0846909e-01
 -1.3089739e-01
 -1.6896170e-01
  1.1494622e-01
  2.4144104e-01
  1.2265028e-01
 -2.1488245e+00
 -1.0254187e-01
  3.5035378e-01
 -6.6179043e-01
  2.0380853e-01
  1.3597503e-01
  2.0559961e-01
 -1.0214468e+00
  6.7016292e-01
 -3.4714106e-01
  2.2536871e+00
 -1.2937279e-01
  2.0839787e-01
 -8.0061930e-01
  2.3752171e-01
  1.0775606e-01
  1.0023013e-01
 -1.5804334e-01
  5.7465512e-01
  5.4709947e-01
 -1.3887514e-01
 -1.0255654e-01
 -1.7097172e-01
  1.1988910e-01
 -1.3210793e-01
  1.5944502e-01
 -1.2202875e-01
  1.1180544e-01
 -6.2149060e-01
 -1.3305517e-01
 -7.9253006e-01
 -1.1436934e-01
  1.7879641e-01
 -1.1580343e-01
 -2.2992942e-01
  2.4157128e-01
  2.9576844e-01
  4.0623191e-01
 -1.3161011e-01
  1.8479282e-01
  1.1181442e-01
  1.1979726e-01
 -1.1885014e-01
  6.9578367e-01
 -2.4064147e-01
  2.2259799e-01
  7.6535571e-01
  1.5783094e-01
  1.2124539e-01
  1.6066672e-01
 -1.9943076e-01
 -1.5766358e-01
  1.0688523e-01
  1.1230027e-01
  1.7957685e+00
  1.6171858e-01
  1.2668242e-01
  5.4019165e-01
  1.0172237e-01
 -1.2832436e-01
  1.2198289e-01
  6.3470662e-01
 -1.4199637e-01
 -1.2406378e-01
 -3.1514987e-01
 -1.3923696e-01
 -3.8789538e-01
 -1.4065084e-01
  2.0281038e-01
 -1.4658514e-01
  1.3941981e-01
  4.1961902e-01
  1.0552309e-01
  3.6951652e-01
 -2.0931844e-01
 -1.1059070e+00
 -4.9004418e-01
  1.2874088e-01
  2.7717304e-01
  7.3295629e-01
  1.3287312e-01
  4.3397665e-01
  7.0093471e-01
  1.7735571e-01
  1.1487556e-01
  1.1094550e-01
 -1.0059471e-01
 -2.6715800e-01
  1.4955208e-01
 -3.5097897e-01
  1.0678924e-01
  1.6409023e+00
 -1.2170226e-01
 -1.2818795e-01
  1.2852763e-01
  1.7633957e-01
 -1.6281319e-01
  5.3463840e-01
  1.2515754e-01
 -1.3824772e+00
  1.1086680e-01
  1.7506364e-01
 -1.0695510e-01
  2.7565128e-01
  1.3411970e-01
 -1.5088551e-01
  1.1093758e-01
  1.0817930e-01
 -1.0882511e-01
  7.1177918e-01
 -1.2406542e-01
  1.0298451e-01
  1.5869841e-01
  1.7002839e-01
  1.0309420e-01
  5.3599060e-01
  1.8914255e-01
  1.1174261e-01
 -2.9987986e+00
 -1.5636237e-01
  1.0997419e+00
 -3.3041248e-01
 -1.8054512e-01
 -1.5576826e-01
 -6.1984134e-01
  1.5288717e-01
  1.0677580e-01
 -4.0986907e-01
  3.6461407e-01
  1.9845143e-01
  1.4137580e-01
  1.1612656e-01
  1.8218389e-01
  2.5872463e-01
  1.4850667e-01
 -1.3472447e-01
  2.1810895e-01
 -1.2648734e-01
  2.3471248e-01
  1.9214746e-01
  1.0741746e-01
  1.5236983e-01
  7.8119981e-01
  2.0287393e-01
 -1.0420017e-01
  1.9061685e+00
  2.5134265e-01
  7.4906182e-01
 -1.2705408e-01
 -2.1801214e-01
  1.8906134e-01
 -3.3167532e-01
  1.2192202e-01
 -8.0435586e-01
 -2.7362531e-01
  1.3478354e-01
  3.1733453e-01
 -1.5925898e-01
 -1.0898452e-01
  1.5202059e-01
 -1.0279851e-01
  1.1842783e-01
 -7.1590328e-01
 -5.3810924e-01
 -3.7061611e-01
 -1.1890595e+00
  1.3232958e-01
  1.5191509e-01
 -1.2632823e-01
  1.0121459e-01
  2.2943085e-01
 -1.4939006e-01
  6.6574687e-01
 -1.3957328e-01
  3.1200078e-01
  1.0782900e-01
 -1.0802486e-01
 -1.0848126e-01
  5.3524429e-01
 -1.1840159e-01
  3.9241329e-01
 -1.6264598e-01
  2.0186576e-01
 -2.8335255e-01
 -2.3951149e-01
 -2.0515367e-01
  1.2433062e-01
  3.0439225e-01
  1.1878017e-01
 -1.9726536e-01
 -2.6140311e-01
  1.3144858e-01
  4.6938056e-01
  1.4095736e-01
  2.0946684e-01
  2.7511224e-01
  5.0748247e-01
 -1.8440890e-01
 -1.2772331e-01
  2.7397960e-01
 -1.0412428e-01
 -7.4629593e-01
 -2.2269921e-01
 -1.1576345e-01
 -1.3232186e-01
  2.8435528e-01
 -1.8342189e-01
  1.9312304e-01
 -2.4503973e-01
  1.4860103e-01
  3.6932936e-01
  2.0457987e-01
 -1.1744372e-01
  1.9952700e-01
 -6.3067365e-01
 -1.7348254e-01
  3.1592524e-01
  1.0399022e-01
 -1.3313431e-01
 -2.3555818e-01
 -2.4779823e-01
 -3.1769088e-01
  2.9191619e-01
 -1.9841054e-01
  1.0155760e-01
 -2.2514734e-01
 -1.5381041e-01
 -2.0099510e-01
 -3.8680613e-01
  1.0720608e-01
 -1.8963039e-01
  1.1667351e-01
  3.2010356e-01
  1.4006300e-01
 -1.7319512e-01
 -1.0018422e-01
  1.1761381e-01
  1.2653598e-01
 -1.8028784e-01
  1.0579704e-01
 -1.5069112e-01
 -1.1368626e-01
 -1.4483619e-01
  6.7078120e-01
 -2.8202131e-01
 -2.1961460e-01
 -1.0759088e-01
 -1.7438550e-01
 -1.6158327e-01
 -3.5477269e-01
 -1.2769119e-01
 -1.4029154e-01
 -1.0790087e-01
  1.9219653e-01
  1.1093891e-01
  1.1381964e-01
  1.2257703e-01
  1.0652103e-01
 -5.3318799e-01
 -1.9265310e+00
 -1.0511007e+00
  2.9546288e-01
 -1.7724892e-01
  1.7440939e-01
  1.2235025e-01
  4.5244378e-01
 -1.5792036e-01
  1.5874654e-01
 -2.2830584e+00
 -3.7427366e-01
  1.1850222e+00
  2.4505949e-01
  1.4014034e-01
  1.2767589e-01
 -1.2743647e-01
  1.9097167e-01
  2.4348983e-01
  1.1744783e+00
  1.0620780e-01
  1.0078460e+00
  1.7190998e+00
 -1.8720263e-01
  1.0333871e-01
  1.9365653e-01
 -1.5583262e-01
 -2.9013237e-01
  2.1742201e+00
  6.1959171e-01
 -1.1839738e+00
 -1.1957928e-01
 -1.5061378e-01
  3.1287995e-01
  3.1413305e-01
  1.0190289e-01
 -1.0141969e-01
 -9.0737230e-01
 -4.5000356e-01
  6.4826077e-01
 -2.4839768e-01
  3.6822662e-01
  3.3639812e-01
  1.1270459e-01
 -1.7638183e-01
  4.1764382e-01
  1.2551208e-01
 -8.0527318e-01
  9.8455483e-01
 -1.0094571e-01
  1.1107279e-01
 -1.0230871e-01
 -1.0498147e-01
  2.3334527e-01
  1.3729495e-01
  1.3710204e-01
  1.2620839e-01
  5.1984239e-01
 -9.1622096e-01
 -1.7526126e-01
  3.0282894e-01
  1.1630417e-01
  1.6881627e-01
 -1.1019890e-01
  5.9060025e-01
 -2.2646192e-01
 -6.5042382e-01
  3.7948641e-01
  3.2621974e-01
  1.0641882e-01
  1.0393835e-01
 -1.6590163e-01
 -1.2152205e-01
 -1.3020006e-01
  2.2203553e-01
  4.3725491e-01
  1.2736477e+00
 -1.0625153e-01
  1.1269965e-01
 -1.2545444e-01
  1.9325989e-01
  2.1561636e-01
  3.0039367e-01
 -4.0076065e-01
 -1.7920829e-01
 -1.0297614e-01
 -1.4959227e-01
 -2.5185961e-01
  2.3291469e-01
  1.2684822e-01
  1.3174865e-01
  2.3903742e-01
  1.2092952e-01
 -1.2308145e-01
  1.0486670e-01
 -1.5685424e-01
  1.0135166e-01
 -1.6375956e-01
  2.0514168e-01
  2.1075886e-01
 -1.0435418e-01
  1.6754946e-01
 -3.2223201e-01
 -1.3547403e-01
 -5.3354388e-01
  4.9066985e-01
  1.2117141e-01
  1.1986575e-01
 -1.1881825e-01
 -2.1209069e-01
 -1.7990927e-01
 -2.8596878e-01
  1.4460275e-01
 -1.1456522e-01
  1.0313423e-01
  1.8001530e-01
  1.2404436e-01
  1.7052019e-01
  3.6341262e-01
 -1.5881824e-01
 -4.7611099e-01
  1.3166992e-01
  1.0391534e-01
 -3.5177669e-01
  2.6646835e-01
  2.9695520e-01
  2.5090370e-01
  1.6970167e-01
 -1.3383690e-01
  1.0703419e-01
  1.5094373e+00
 -1.2712622e-01
  4.8972958e-01
 -1.4538141e-01
  1.6945395e-01
 -2.4055231e-01
  1.1113365e-01
 -3.1611058e-01
 -4.2019826e-01
  2.0037580e-01
  2.5559381e-01
  2.0488820e+00
 -1.7941532e-01
  1.0056858e-01
 -1.1341179e-01
 -1.3554259e-01
  1.6736314e-01
 -6.8329173e-01
  3.1930357e-01
  7.5672764e-01
 -1.4437130e-01
 -3.8993987e-01
 -1.6743606e-01
 -1.2367798e-01
  3.5175225e-01
  1.5456992e-01
  5.2297604e-01
  1.7253861e-01
  3.4256914e-01
 -1.1051414e+00
 -1.4756274e-01
  1.4761397e-01
 -1.7645434e-01
  1.0628972e-01
 -1.6996489e-01
  6.2301546e-01
 -2.1812937e-01
  1.6367197e-01
 -1.5686011e-01
  1.6962993e-01
 -1.2422132e-01
 -1.8520321e-01
  1.1939909e-01
 -1.9345436e-01
  4.2444658e-01
 -8.1663913e-01
  1.4330566e-01
 -1.1191289e-01
  1.9468811e-01
  1.3422939e-01
  2.4546561e-01
 -1.1277680e-01
 -1.2451185e-01
  1.0849371e-01
 -9.9853486e-01
 -2.2120807e-01
  1.0056956e-01
 -1.6244131e-01
  1.4589927e-01
 -1.2388854e-01
  7.5217360e-01
 -1.4210124e-01
  1.1922675e-01
 -2.6079673e-01
 -1.7699271e-01
 -1.9912766e+00
  1.9772559e-01
  1.1287382e-01
 -1.3906494e-01
  5.5046099e-01
 -1.1018764e-01
 -2.2936767e-01
 -2.8654164e-01
 -1.6325919e-01
 -1.1188356e-01
  1.2472035e-01
 -1.9637762e-01
 -1.0827864e-01
 -2.1203002e-01
 -3.7808007e-01
 -1.4229396e-01
 -1.3833325e+00
 -1.1946014e-01
  8.4760678e-01
 -1.4951478e-01
 -1.2760255e-01
 -1.3499942e-01
  1.2100350e+00
  1.0866893e-01
  3.9793628e-01
  1.2809509e-01
 -2.2751305e-01
 -5.5056435e-01
 -1.2564389e-01
  2.1462689e-01
 -1.4007214e-01
 -1.0003560e-01
 -1.0173944e-01
 -1.6230552e+00
  4.6576655e-01
 -2.1646860e-01
  1.4014925e-01
 -2.0677426e-01
 -1.1871787e-01
 -3.5136685e-01
 -1.2142520e-01
  1.6746950e-01
  1.0682422e-01
  1.2502760e+00
  3.7366620e-01
 -1.9892997e+00
  2.4686873e-01
  1.0882511e-01
  1.9361211e+00
 -8.1828940e-01
 -8.1698680e-01
 -6.9707203e-01
 -1.0316510e-01
  1.1477169e-01
 -2.9524639e-01
 -1.0464236e-01
 -1.4475358e-01
 -1.5577993e-01
 -3.5445598e-01
 -1.1809274e-01
  3.0699641e-01
 -1.1941211e+00
  1.2443064e-01
  5.2332622e-01
  1.1694878e-01
  1.9992888e-01
 -3.1198692e-01
 -1.0801671e-01
  2.6899844e-01
 -1.2976476e+00
  3.4666556e-01
  1.8381259e-01
 -8.6759871e-01
  1.0263140e-01
 -2.2646496e-01
 -9.0372640e-01
 -8.8392997e-01
 -3.4464410e-01
  1.1393714e-01
 -1.2905495e+00
  1.6225287e-01
 -1.3546612e+00
  1.1375912e-01
  1.2547070e-01
 -1.6087879e-01
 -2.7819857e-01
 -2.4414355e-01
  3.1114528e-01
 -7.2062123e-01
 -3.6387619e-01
 -5.1241255e-01
  1.1034120e-01
  1.1413360e-01
  3.6275914e-01
 -1.7221833e+00
 -3.1067857e-01
 -1.2464306e+00
  1.1274834e+00
 -2.5924450e-01
  2.2545879e+00
 -3.7102827e-01
  1.8771043e-01
 -7.3956031e-01
  2.5792733e-01
 -9.1501778e-01
 -6.1459327e-01
  1.6869121e+00
 -6.6149014e-01
  1.8683907e-01
 -6.2333173e-01
 -1.1107999e-01
 -2.1456361e-01
  1.3930964e-01
 -1.1258393e-01
 -1.9183420e-01
  8.5266691e-01
 -6.1138558e-01
  1.4043072e+00
  1.4331025e-01
 -2.0552360e-01
 -3.2784414e-01
 -4.4277814e-01
 -1.2186511e+00
  1.9977071e+00
 -9.7892654e-01
  5.6286436e-01
 -6.5260500e-01
  1.6130261e-01
 -1.3716757e-01
 -3.1151775e-01
  1.2365188e-01
 -8.0202204e-01
  4.2605585e-01
 -1.4905014e+00
  2.6149371e-01
  1.0465465e-01
  1.1958702e-01
 -1.6993919e-01
  1.0580939e-01
 -6.2107670e-01
 -3.1884837e-01
  1.3517138e-01
  4.5799872e-01
  2.0442811e-01
  3.7151846e-01
  1.1022697e-01
  2.9925987e-01
 -2.3869002e-01
 -1.1740133e+00
  1.1932844e-01
  4.0922844e-01
 -9.2963231e-01
  6.5908265e-01
  1.1725509e+00
  2.3203647e-01
  1.0421294e-01
 -1.8943082e-01
  2.3279297e-01
 -9.5223087e-01
  6.6084033e-01
 -3.7933636e+00
  1.1852004e-01
 -2.4199772e+00
  2.0270400e-01
 -2.8437898e-01
 -6.7003238e-01
  5.9521961e-01
  1.2798466e-01
 -1.5447991e-01
  1.1804595e+00
 -6.6994411e-01
 -9.8916572e-01
 -1.1243693e-01
  3.2679057e-01
 -1.8181323e-01
  3.5972521e-01
 -6.5592086e-01
 -1.0963928e-01
  9.0789223e-01
  1.1396313e-01
 -3.3611760e-01
  3.9717060e-01
  1.4625749e-01
  1.3195018e-01
  1.3655937e-01
  1.5306160e-01
  1.7951803e+00
 -4.7745568e-01
  1.5003881e-01
 -1.8724763e-01
  1.0697112e-01
  2.0975497e-01
 -5.0315547e-01
  3.8291848e-01
 -9.4905710e-01
 -5.8316320e-01
 -1.1421216e+00
  4.4439214e-01
  1.0775735e-01
 -1.3605547e-01
 -1.1620530e-01
 -5.3202325e-01
  6.6573089e-01
  2.8716710e-01
  6.5941209e-01
  2.6046085e-01
 -2.5946131e-01
  1.0019576e-01
  8.1789649e-01
 -1.0330796e-01
  4.8683220e-01
  2.5965825e-01
 -1.0845831e-01
 -2.1713820e+00
 -1.4137280e-01
  1.1774985e-01
  1.1838496e-01
  2.0390737e-01
  1.3614908e-01
  3.4100965e-01
  1.1451192e+00
  1.6747397e+00
  2.3057467e-01
  6.3092005e-01
 -1.1965466e-01
  1.6803874e-01
  2.0704527e-01
  1.1814120e-01
 -3.0386412e-01
 -7.4094677e-01
 -6.7250139e-01
  7.8215849e-01
 -2.7655599e-01
 -1.2383735e-01
 -2.2803922e+00
  5.8208430e-01
 -3.0781069e-01
  3.5090479e-01
  1.1029592e-01
  1.0437771e+00
  1.0706044e-01
 -2.7143633e-01
 -1.8791687e-01
 -1.4026871e-01
  1.6752979e-01
  2.0563266e-01
  1.3532642e-01
  2.1321258e-01
 -6.0954779e-01
  7.6937133e-01
 -1.0550735e-01
 -6.6886568e-01
  3.7020048e-01
  4.5518705e-01
 -1.4689156e-01
 -3.0212820e-01
  1.0180309e-01
 -1.0544261e+00
  5.9076113e-01
 -6.5791714e-01
  2.1635750e-01
 -1.1824176e+00
  2.4447659e-01
 -2.4217212e-01
  6.8619084e-01
  6.6352308e-01
  7.4150336e-01
  7.4861163e-01
 -5.3934985e-01
 -3.9250827e-01
  1.0781752e+00
  1.6547629e-01
 -1.2167275e-01
 -3.4322193e-01
  4.3382868e-01
  3.8787096e+00
 -1.8585452e-01
  1.3068047e-01
 -1.1246741e-01
  4.6143496e-01
  1.1829703e-01
  1.2999886e-01
  6.0470170e-01
 -1.5151639e-01
  6.0331327e-01
 -1.2198763e-01
 -8.0655134e-01
 -3.9762628e-01
  6.5423244e-01
  1.1602452e-01
  1.1269947e-01
  1.3135743e+00
 -8.2670438e-01
  6.7658979e-01
  5.2670979e-01
 -1.2696731e-01
  1.0971099e-01
  1.5047684e-01
 -1.0790946e-01
  1.0016359e-01
  4.5651889e-01
  8.8188517e-01
 -5.5113542e-01
  1.9952461e-01
 -3.4300402e-01
 -1.4591041e-01
  1.8419383e-01
  1.2869577e-01
  1.1119394e-01
  1.4594717e-01
  9.9521005e-01
  4.0482491e-01
 -1.5321848e-01
 -2.5693989e-01
 -5.1972318e-01
  1.3594210e-01
 -6.5815079e-01
  1.3074440e-01
 -1.1502178e-01
  1.4717472e+00
 -1.2433926e+00
  2.0909653e+00
  8.1514442e-01
  1.8817690e-01
 -1.1124231e-01
  1.5163548e-01
 -1.0590111e-01
 -2.1621114e-01
 -1.3201146e+00
 -9.1819674e-01
 -6.2960386e-01
 -1.3990766e-01
 -1.0562301e-01
  9.2513156e-01
 -1.0334460e-01
  1.0876834e-01
  1.3448599e-01
  5.7290709e-01
 -5.3193355e-01
  1.8324238e-01
  1.3083694e+00
 -4.5059517e-01
  3.7195513e-01
 -3.3376929e-01
  1.7953202e-01
  1.5339853e-01
 -2.2846518e+00
 -1.7768936e-01
  3.6494979e-01
  1.0413938e-01
  5.0876385e-01
  3.3500007e-01
  6.8745744e-01
 -1.3228825e-01
  2.7131647e-01
 -9.8232830e-01
 -3.8760197e-01
 -2.0925921e-01
  4.6150771e-01
 -1.0832660e+00
 -1.1373000e+00
 -2.4085805e-01
 -1.0416365e-01
  1.3309695e-01
 -2.8960779e-01
 -4.0342450e-01
  1.0010693e-01
 -9.6959060e-01
  4.0400505e-01
  4.2019001e-01
 -5.4948658e-01
  1.3946021e-01
  1.4915925e+00
 -1.0744343e+00
 -5.2039284e-01
  6.0640627e-01
  1.8477827e-01
  1.5018615e-01
 -1.0483390e-01
  1.3583244e-01
  1.4057024e-01
 -3.4755287e-01
 -1.5863400e+00
  1.3237655e+00
  2.6071054e-01
 -1.2828121e+00
  1.1839464e-01
 -1.2849637e+00
  1.5984699e-01
  1.1042702e-01
 -1.1142001e-01
  1.0841372e+00
  4.6132019e-01
  3.2861665e-01
  1.1345729e+00
  7.8630096e-01
  1.3922149e-01
 -5.9341496e-01
  1.4331740e-01
 -1.2930207e+00
  2.9707417e-01
 -1.3926220e+00
 -1.4478688e+00
 -6.3437480e-01
 -1.0929213e-01
  2.0444679e+00
  6.3425118e-01
  1.4284438e-01
 -2.0171092e+00
  2.4771327e-01
  1.4350816e+00
  5.1303965e-01
  1.0985793e+00
 -1.5359255e+00
 -1.1639943e-01
 -2.6938888e-01
 -1.0760724e-01
  1.7052045e-01
  5.4908562e-01
  8.4277636e-01
  2.9166317e-01
  9.6278745e-01
  1.8990634e-01
 -1.1319887e-01
 -3.2287443e-01
  1.1489622e-01
 -2.6393098e-01
 -6.2949401e-01
 -2.2020316e+00
 -1.4229981e+00
  5.4309183e-01
  1.0802680e-01
  1.0000606e-01
  1.2817229e-01
  1.3685884e-01
 -1.5250810e+00
 -5.6537139e-01
  2.2267389e-01
  2.3959595e-01
 -1.0691780e-01
 -1.1184790e-01
  1.4815947e+00
  1.3971592e+00
 -1.6674279e-01
  3.7190124e-01
  1.0083823e-01
  2.4230673e+00
  1.3454385e+00
  8.6797184e-01
  3.7602642e-01
 -1.0015763e-01
 -6.1756575e-01
 -1.1908698e-01
  2.9748717e-01
 -1.1316625e+00
 -3.4451881e-01
  7.7251542e-01
 -1.3942893e-01
  1.3823444e-01
 -9.9271590e-01
  1.3730115e-01
 -1.8173337e-01
 -2.3854998e-01
 -1.1086764e+00
  1.5584743e-01
 -2.2407639e-01
 -1.2951659e+00
  5.3314602e-01
 -7.2652221e-01
 -1.7388266e-01
 -1.0702895e-01
  5.4803282e-01
  1.0612188e-01
  1.1749060e-01
 -2.1280454e-01
  5.0194484e-01
  1.2868184e-01
  3.1741502e+00
  2.7662572e-01
  1.1738922e-01
  2.8551027e-01
 -1.0630959e-01
  3.6249849e-01
  1.2253184e+00
  1.2462045e+00
  4.4154039e-01
 -2.7892751e-01
 -1.1794896e-01
 -1.6753016e-01
 -1.4251015e-01
 -1.9915638e+00
 -6.3975334e-01
  2.6083919e-01
 -4.7338897e-01
  1.0731587e+00
 -2.3787158e+00
 -1.1396266e-01
 -1.0368512e-01
  1.3527596e-01
  8.4727317e-01
 -1.1751755e-01
 -1.2990627e-01
 -4.3937299e-01
  3.5164276e-01
  8.6466938e-01
  1.1423004e-01
 -1.5604891e-01
  8.1937641e-01
  6.0812348e-01
  1.0183196e-01
  9.9357492e-01
 -1.0093294e-01
  2.9485294e-01
  1.0871875e+00
 -4.2914701e-01
 -1.8093576e-01
 -5.5917001e-01
  7.0149457e-01
  6.4864451e-01
 -4.1590366e-01
  1.0226327e-01
 -8.6211950e-01
  2.5664556e-01
 -6.0407192e-01
 -1.6973616e-01
  1.8464765e-01
 -1.2178259e+00
  3.3765802e-01
 -2.0515423e+00
 -1.1545942e+00
  8.4575808e-01
  2.5129265e-01
 -3.5892478e-01
  2.7312484e-01
 -2.2114339e+00
 -8.7445861e-01
  1.2001053e+00
  1.0375746e+00
  1.2875335e-01
  1.2519965e-01
  7.4042445e-01
  1.4091134e-01
  1.4037007e-01
  5.8113658e-01
  2.0143220e+00
  6.7516696e-01
  1.0872152e-01
  1.2955676e-01
 -1.5967086e-01
 -1.9818250e+00
 -2.1741846e-01
  1.5814063e-01
 -4.9445605e-01
  6.2608182e-01
 -1.0784648e-01
  1.0051926e-01
 -1.2906326e-01
  4.6916127e-01
  8.1765640e-01
 -3.8362187e-01
 -1.0439521e-01
 -2.2870469e-01
  2.5585389e-01
 -3.3523059e-01
  6.8527263e-01
  4.6691599e-01
  3.6680552e-01
  2.3413515e+00
 -7.6498747e-01
 -2.7329540e-01
  1.6407537e+00
  1.9731514e+00
  1.0845813e+00
 -9.5169622e-01
  1.0987387e+00
 -1.0026847e-01
  7.2935432e-01
  5.5144274e-01
  2.2367528e-01
  1.1374032e-01
  6.0270423e-01
 -3.7921229e-01
  1.0003181e-01
  1.1658485e+00
  5.7574350e-01
 -2.3452208e+00
 -1.6159313e+00
 -1.4231703e-01
 -1.2772713e+00
 -3.4630623e-01
 -2.3936182e-01
  2.0562668e+00
  2.8228769e-01
 -1.4277649e-01
  8.6628300e-01
  1.0152221e-01
 -1.2021013e-01
  1.8431002e+00
  8.5889065e-01
 -3.8681912e-01
  1.9099567e+00
 -4.8207745e-01
  7.0917290e-01
  1.5819200e+00
  3.1529832e-01
 -1.1353244e-01
  1.5409365e+00
  3.1729001e-01
  1.9268996e-01
  2.1793498e-01
 -1.4434135e+00
 -2.5976012e+00
 -1.8437818e-01
  1.8427357e-01
  1.6053547e-01
  1.2520775e-01
 -1.4547303e-01
 -1.1187350e+00
 -1.0282689e-01
 -7.5846469e-01
 -1.7652909e-01
  2.5512257e-01
  1.5676565e-01
 -1.6609208e-01
 -1.0918520e-01
  2.4834636e-01
 -6.5105766e-01
 -3.1176710e-01
 -1.0589441e-01
 -5.2008396e-01
 -1.1331892e+00
  2.7730787e-01
  1.2470628e-01
  6.4804834e-01
  1.0914083e+00
 -4.9924025e-01
 -5.3775281e-01
 -1.5986972e-01
  1.0679412e-01
  8.7930888e-01
  3.3765480e-01
  1.1986532e-01
  1.3641202e-01
 -1.2015948e-01
 -3.5234022e-01
  1.4722785e+00
  7.5164402e-01
 -2.3683536e-01
  1.7319638e-01
 -3.3865419e-01
 -1.2213653e-01
  4.3987629e-01
  9.6355796e-01
  2.1143004e-01
  6.5118325e-01
  1.7613286e-01
  5.6293899e-01
  7.4207431e-01
  6.7245823e-01
  2.1335799e-01
  1.7915782e-01
 -5.7370788e-01
  1.1808399e-01
 -4.7965428e-01
 -3.8310692e-01
  3.3003771e-01
  2.8482862e+00
 -1.8885243e-01
  1.2077999e-01
  1.1415595e-01
  1.2671752e-01
  1.0081577e-01
  1.1954675e+00
  4.5399591e-01
  1.2014320e-01
  1.1911180e+00
  3.4610787e-01
  1.4487725e-01
  1.1757416e-01
  1.1172017e-01
 -6.6909170e-01
 -6.2801307e-01
  4.3631649e-01
  2.7458650e-01
  1.0236644e-01
  3.8950670e-01
 -1.7196751e-01
 -1.8944505e-01
 -1.2803029e-01
  1.8646112e-01
 -1.2270656e+00
  7.5561412e-02
  7.5561412e-02
  7.5561412e-02
  7.5561412e-02
  7.5561412e-02
  7.5561412e-02
  7.5561412e-02
  7.5561412e-02
  7.5561412e-02
  2.6859117e-01
  2.6859117e-01
  2.6859117e-01
  2.6859117e-01
  2.6859117e-01
  2.6859117e-01
  2.6859117e-01
  1.2044226e-01
  1.2044226e-01
  1.2044226e-01
  1.2044226e-01
  1.2044226e-01
  1.2044226e-01
  1.2044226e-01
  2.9771704e-02
  2.9771704e-02
  2.9771704e-02
  2.9771704e-02
  2.9771704e-02
  2.9771704e-02
  2.9771704e-02
  2.0310791e-02
  2.0310791e-02
  2.0310791e-02
  2.0310791e-02
  2.0310791e-02
  2.0310791e-02
  2.0310791e-02
  1.2196199e-01
  1.2196199e-01
  1.2196199e-01
  1.2196199e-01
  1.2196199e-01
  1.2196199e-01
  1.2196199e-01
